<?xml version="1.0"?>
<opencv_storage>
<cascade>
  <stageType>BOOST</stageType>
  <featureType>HAAR</featureType>
  <height>28</height>
  <width>28</width>
  <stageParams>
    <boostType>GAB</boostType>
    <minHitRate>9.9900001287460327e-01</minHitRate>
    <maxFalseAlarm>3.4999999403953552e-01</maxFalseAlarm>
    <weightTrimRate>9.4999998807907104e-01</weightTrimRate>
    <maxDepth>1</maxDepth>
    <maxWeakCount>100</maxWeakCount></stageParams>
  <featureParams>
    <maxCatCount>0</maxCatCount>
    <featSize>1</featSize>
    <mode>ALL</mode></featureParams>
  <stageNum>8</stageNum>
  <stages>
    <!-- stage 0 -->
    <_>
      <maxWeakCount>2</maxWeakCount>
      <stageThreshold>-2.4463290348649025e-02</stageThreshold>
      <weakClassifiers>
        <_>
          <internalNodes>
            0 -1 23 -1.2541103363037109e-01</internalNodes>
          <leafValues>
            9.6255505084991455e-01 -9.8995536565780640e-01</leafValues></_>
        <_>
          <internalNodes>
            0 -1 56 -1.7109684646129608e-02</internalNodes>
          <leafValues>
            9.6949970722198486e-01 -9.8701834678649902e-01</leafValues></_></weakClassifiers></_>
    <!-- stage 1 -->
    <_>
      <maxWeakCount>3</maxWeakCount>
      <stageThreshold>-1.0736554861068726e+00</stageThreshold>
      <weakClassifiers>
        <_>
          <internalNodes>
            0 -1 45 -2.3943174630403519e-02</internalNodes>
          <leafValues>
            7.5574111938476562e-01 -9.3226176500320435e-01</leafValues></_>
        <_>
          <internalNodes>
            0 -1 24 -1.9698232412338257e-01</internalNodes>
          <leafValues>
            7.3679143190383911e-01 -8.7871485948562622e-01</leafValues></_>
        <_>
          <internalNodes>
            0 -1 52 -2.4370606988668442e-02</internalNodes>
          <leafValues>
            7.3732113838195801e-01 -8.6799329519271851e-01</leafValues></_></weakClassifiers></_>
    <!-- stage 2 -->
    <_>
      <maxWeakCount>6</maxWeakCount>
      <stageThreshold>-2.1881282329559326e+00</stageThreshold>
      <weakClassifiers>
        <_>
          <internalNodes>
            0 -1 58 -2.5488339364528656e-02</internalNodes>
          <leafValues>
            5.6135267019271851e-01 -8.8948947191238403e-01</leafValues></_>
        <_>
          <internalNodes>
            0 -1 9 1.1561734601855278e-02</internalNodes>
          <leafValues>
            -7.8963756561279297e-01 6.5323615074157715e-01</leafValues></_>
        <_>
          <internalNodes>
            0 -1 2 1.0279141366481781e-02</internalNodes>
          <leafValues>
            -7.4840623140335083e-01 5.9308475255966187e-01</leafValues></_>
        <_>
          <internalNodes>
            0 -1 74 -3.5184872103855014e-04</internalNodes>
          <leafValues>
            5.0219470262527466e-01 -8.7295389175415039e-01</leafValues></_>
        <_>
          <internalNodes>
            0 -1 16 -2.4726007133722305e-02</internalNodes>
          <leafValues>
            4.5932877063751221e-01 -8.2654243707656860e-01</leafValues></_>
        <_>
          <internalNodes>
            0 -1 65 -4.6167324762791395e-04</internalNodes>
          <leafValues>
            5.6375277042388916e-01 -6.4981240034103394e-01</leafValues></_></weakClassifiers></_>
    <!-- stage 3 -->
    <_>
      <maxWeakCount>8</maxWeakCount>
      <stageThreshold>-2.0938980579376221e+00</stageThreshold>
      <weakClassifiers>
        <_>
          <internalNodes>
            0 -1 5 2.1885264664888382e-02</internalNodes>
          <leafValues>
            -7.5358468294143677e-01 6.3525092601776123e-01</leafValues></_>
        <_>
          <internalNodes>
            0 -1 37 -1.8492829799652100e-01</internalNodes>
          <leafValues>
            4.0096241235733032e-01 -8.3820229768753052e-01</leafValues></_>
        <_>
          <internalNodes>
            0 -1 12 2.1874422207474709e-02</internalNodes>
          <leafValues>
            -6.7637711763381958e-01 4.4347676634788513e-01</leafValues></_>
        <_>
          <internalNodes>
            0 -1 46 -2.2576231509447098e-02</internalNodes>
          <leafValues>
            3.2729467749595642e-01 -8.3508712053298950e-01</leafValues></_>
        <_>
          <internalNodes>
            0 -1 69 -2.3418884724378586e-02</internalNodes>
          <leafValues>
            3.8996556401252747e-01 -7.1446007490158081e-01</leafValues></_>
        <_>
          <internalNodes>
            0 -1 10 1.6476422548294067e-02</internalNodes>
          <leafValues>
            -5.2236044406890869e-01 4.9491044878959656e-01</leafValues></_>
        <_>
          <internalNodes>
            0 -1 72 -5.6030950509011745e-04</internalNodes>
          <leafValues>
            4.4733497500419617e-01 -6.3247239589691162e-01</leafValues></_>
        <_>
          <internalNodes>
            0 -1 32 -1.4537909626960754e-01</internalNodes>
          <leafValues>
            6.3645696640014648e-01 -4.4970101118087769e-01</leafValues></_></weakClassifiers></_>
    <!-- stage 4 -->
    <_>
      <maxWeakCount>9</maxWeakCount>
      <stageThreshold>-1.7986761331558228e+00</stageThreshold>
      <weakClassifiers>
        <_>
          <internalNodes>
            0 -1 43 2.5587853044271469e-02</internalNodes>
          <leafValues>
            -7.1695005893707275e-01 4.6408209204673767e-01</leafValues></_>
        <_>
          <internalNodes>
            0 -1 4 3.3577457070350647e-02</internalNodes>
          <leafValues>
            -6.4466327428817749e-01 5.0484764575958252e-01</leafValues></_>
        <_>
          <internalNodes>
            0 -1 13 -2.4067708849906921e-01</internalNodes>
          <leafValues>
            4.7059234976768494e-01 -5.4868841171264648e-01</leafValues></_>
        <_>
          <internalNodes>
            0 -1 53 -2.8014447540044785e-02</internalNodes>
          <leafValues>
            4.3809431791305542e-01 -6.8357306718826294e-01</leafValues></_>
        <_>
          <internalNodes>
            0 -1 54 -3.1095430254936218e-02</internalNodes>
          <leafValues>
            3.9862027764320374e-01 -5.2512377500534058e-01</leafValues></_>
        <_>
          <internalNodes>
            0 -1 34 8.4655787795782089e-03</internalNodes>
          <leafValues>
            -5.2932876348495483e-01 3.5023635625839233e-01</leafValues></_>
        <_>
          <internalNodes>
            0 -1 73 -3.0527939088642597e-04</internalNodes>
          <leafValues>
            3.2586479187011719e-01 -6.0200864076614380e-01</leafValues></_>
        <_>
          <internalNodes>
            0 -1 27 5.4591735824942589e-03</internalNodes>
          <leafValues>
            -5.7579135894775391e-01 3.3599230647087097e-01</leafValues></_>
        <_>
          <internalNodes>
            0 -1 14 -2.1436255425214767e-02</internalNodes>
          <leafValues>
            1.9797347486019135e-01 -8.5761731863021851e-01</leafValues></_></weakClassifiers></_>
    <!-- stage 5 -->
    <_>
      <maxWeakCount>14</maxWeakCount>
      <stageThreshold>-1.8530409336090088e+00</stageThreshold>
      <weakClassifiers>
        <_>
          <internalNodes>
            0 -1 40 -2.7768161147832870e-02</internalNodes>
          <leafValues>
            4.6264743804931641e-01 -6.4687663316726685e-01</leafValues></_>
        <_>
          <internalNodes>
            0 -1 67 1.5785563737154007e-02</internalNodes>
          <leafValues>
            -5.6006443500518799e-01 4.5570233464241028e-01</leafValues></_>
        <_>
          <internalNodes>
            0 -1 34 1.8220249563455582e-02</internalNodes>
          <leafValues>
            -4.0077498555183411e-01 6.1454057693481445e-01</leafValues></_>
        <_>
          <internalNodes>
            0 -1 42 -7.8582915011793375e-04</internalNodes>
          <leafValues>
            3.0335327982902527e-01 -7.1902459859848022e-01</leafValues></_>
        <_>
          <internalNodes>
            0 -1 68 -2.5615543127059937e-02</internalNodes>
          <leafValues>
            3.3796095848083496e-01 -6.2175148725509644e-01</leafValues></_>
        <_>
          <internalNodes>
            0 -1 66 -3.2183472067117691e-02</internalNodes>
          <leafValues>
            2.7480068802833557e-01 -5.3832668066024780e-01</leafValues></_>
        <_>
          <internalNodes>
            0 -1 20 1.8281562253832817e-02</internalNodes>
          <leafValues>
            -3.7437584996223450e-01 4.4860097765922546e-01</leafValues></_>
        <_>
          <internalNodes>
            0 -1 63 -1.0809570085257292e-03</internalNodes>
          <leafValues>
            2.2291390597820282e-01 -6.8426030874252319e-01</leafValues></_>
        <_>
          <internalNodes>
            0 -1 36 2.9333619400858879e-02</internalNodes>
          <leafValues>
            -2.1383488178253174e-01 7.8683364391326904e-01</leafValues></_>
        <_>
          <internalNodes>
            0 -1 41 -1.6375926136970520e-01</internalNodes>
          <leafValues>
            5.7911062240600586e-01 -2.8333929181098938e-01</leafValues></_>
        <_>
          <internalNodes>
            0 -1 48 -2.4268813431262970e-02</internalNodes>
          <leafValues>
            2.4531753361225128e-01 -6.4648044109344482e-01</leafValues></_>
        <_>
          <internalNodes>
            0 -1 17 -1.9229400204494596e-03</internalNodes>
          <leafValues>
            1.8088376522064209e-01 -7.7181529998779297e-01</leafValues></_>
        <_>
          <internalNodes>
            0 -1 76 2.9204983264207840e-02</internalNodes>
          <leafValues>
            -2.4630089104175568e-01 6.7145240306854248e-01</leafValues></_>
        <_>
          <internalNodes>
            0 -1 25 -6.1661280691623688e-02</internalNodes>
          <leafValues>
            3.1982430815696716e-01 -4.3958255648612976e-01</leafValues></_></weakClassifiers></_>
    <!-- stage 6 -->
    <_>
      <maxWeakCount>19</maxWeakCount>
      <stageThreshold>-1.9482473134994507e+00</stageThreshold>
      <weakClassifiers>
        <_>
          <internalNodes>
            0 -1 6 2.9832685366272926e-02</internalNodes>
          <leafValues>
            -6.2550199031829834e-01 4.8870056867599487e-01</leafValues></_>
        <_>
          <internalNodes>
            0 -1 44 3.0224245041608810e-02</internalNodes>
          <leafValues>
            -4.2719405889511108e-01 4.9809795618057251e-01</leafValues></_>
        <_>
          <internalNodes>
            0 -1 3 -3.0381749384105206e-03</internalNodes>
          <leafValues>
            -4.9217295646667480e-01 3.7107822299003601e-01</leafValues></_>
        <_>
          <internalNodes>
            0 -1 31 -1.0415145754814148e-01</internalNodes>
          <leafValues>
            6.9070488214492798e-01 -2.4819988012313843e-01</leafValues></_>
        <_>
          <internalNodes>
            0 -1 30 -2.3886786401271820e-01</internalNodes>
          <leafValues>
            4.4900086522102356e-01 -3.7264931201934814e-01</leafValues></_>
        <_>
          <internalNodes>
            0 -1 70 -5.7961727725341916e-04</internalNodes>
          <leafValues>
            2.4790968000888824e-01 -6.2709766626358032e-01</leafValues></_>
        <_>
          <internalNodes>
            0 -1 51 -8.2713857293128967e-02</internalNodes>
          <leafValues>
            4.5801326632499695e-01 -2.9566684365272522e-01</leafValues></_>
        <_>
          <internalNodes>
            0 -1 55 -6.4613349735736847e-02</internalNodes>
          <leafValues>
            3.0117371678352356e-01 -4.4146138429641724e-01</leafValues></_>
        <_>
          <internalNodes>
            0 -1 19 1.5859257429838181e-02</internalNodes>
          <leafValues>
            -2.9604196548461914e-01 4.7111189365386963e-01</leafValues></_>
        <_>
          <internalNodes>
            0 -1 21 -5.9043709188699722e-04</internalNodes>
          <leafValues>
            2.2919362783432007e-01 -5.9007656574249268e-01</leafValues></_>
        <_>
          <internalNodes>
            0 -1 22 4.6042289584875107e-02</internalNodes>
          <leafValues>
            -3.6666226387023926e-01 3.3370181918144226e-01</leafValues></_>
        <_>
          <internalNodes>
            0 -1 57 -1.3787797093391418e-01</internalNodes>
          <leafValues>
            6.4743608236312866e-01 -1.7772944271564484e-01</leafValues></_>
        <_>
          <internalNodes>
            0 -1 1 5.1424920558929443e-02</internalNodes>
          <leafValues>
            -2.4387778341770172e-01 4.4125196337699890e-01</leafValues></_>
        <_>
          <internalNodes>
            0 -1 35 -2.8055295115336776e-04</internalNodes>
          <leafValues>
            2.1357673406600952e-01 -6.5188509225845337e-01</leafValues></_>
        <_>
          <internalNodes>
            0 -1 50 -7.5441941618919373e-02</internalNodes>
          <leafValues>
            7.2368174791336060e-01 -1.8490003049373627e-01</leafValues></_>
        <_>
          <internalNodes>
            0 -1 74 -5.2349292673170567e-04</internalNodes>
          <leafValues>
            2.0579782128334045e-01 -6.7429459095001221e-01</leafValues></_>
        <_>
          <internalNodes>
            0 -1 39 -1.8371936678886414e-01</internalNodes>
          <leafValues>
            8.8960438966751099e-01 -1.5289963781833649e-01</leafValues></_>
        <_>
          <internalNodes>
            0 -1 75 -2.3185479221865535e-04</internalNodes>
          <leafValues>
            2.7082967758178711e-01 -5.3957188129425049e-01</leafValues></_>
        <_>
          <internalNodes>
            0 -1 8 4.7380961477756500e-02</internalNodes>
          <leafValues>
            1.6296662390232086e-01 -6.6374295949935913e-01</leafValues></_></weakClassifiers></_>
    <!-- stage 7 -->
    <_>
      <maxWeakCount>21</maxWeakCount>
      <stageThreshold>-1.8236966133117676e+00</stageThreshold>
      <weakClassifiers>
        <_>
          <internalNodes>
            0 -1 7 3.2437540590763092e-02</internalNodes>
          <leafValues>
            -5.6001913547515869e-01 4.4499179720878601e-01</leafValues></_>
        <_>
          <internalNodes>
            0 -1 33 2.4112481623888016e-02</internalNodes>
          <leafValues>
            -3.2897970080375671e-01 4.7958287596702576e-01</leafValues></_>
        <_>
          <internalNodes>
            0 -1 71 -4.0423666359856725e-04</internalNodes>
          <leafValues>
            2.8473070263862610e-01 -5.3021895885467529e-01</leafValues></_>
        <_>
          <internalNodes>
            0 -1 28 2.7962706983089447e-02</internalNodes>
          <leafValues>
            -3.4525659680366516e-01 3.9572399854660034e-01</leafValues></_>
        <_>
          <internalNodes>
            0 -1 49 -1.8287023901939392e-01</internalNodes>
          <leafValues>
            7.1332794427871704e-01 -1.3590782880783081e-01</leafValues></_>
        <_>
          <internalNodes>
            0 -1 29 4.2394973337650299e-02</internalNodes>
          <leafValues>
            2.3308147490024567e-01 -5.2378469705581665e-01</leafValues></_>
        <_>
          <internalNodes>
            0 -1 0 -2.4116302374750376e-03</internalNodes>
          <leafValues>
            -4.6444395184516907e-01 2.2110779583454132e-01</leafValues></_>
        <_>
          <internalNodes>
            0 -1 47 -2.5201714038848877e-01</internalNodes>
          <leafValues>
            8.7197327613830566e-01 -1.3585062325000763e-01</leafValues></_>
        <_>
          <internalNodes>
            0 -1 38 -2.2315095365047455e-01</internalNodes>
          <leafValues>
            7.4059277772903442e-01 -1.4379237592220306e-01</leafValues></_>
        <_>
          <internalNodes>
            0 -1 64 -5.5167824029922485e-04</internalNodes>
          <leafValues>
            2.4062617123126984e-01 -5.7941180467605591e-01</leafValues></_>
        <_>
          <internalNodes>
            0 -1 26 -3.2550641335546970e-03</internalNodes>
          <leafValues>
            -4.1770038008689880e-01 2.5565496087074280e-01</leafValues></_>
        <_>
          <internalNodes>
            0 -1 18 3.5887838748749346e-05</internalNodes>
          <leafValues>
            1.6182488203048706e-01 -5.8958041667938232e-01</leafValues></_>
        <_>
          <internalNodes>
            0 -1 77 -2.6942535769194365e-03</internalNodes>
          <leafValues>
            -7.4754089117050171e-01 1.4699666202068329e-01</leafValues></_>
        <_>
          <internalNodes>
            0 -1 61 -1.2979599833488464e-01</internalNodes>
          <leafValues>
            7.1143645048141479e-01 -1.9503675401210785e-01</leafValues></_>
        <_>
          <internalNodes>
            0 -1 79 -1.8278239294886589e-03</internalNodes>
          <leafValues>
            -5.4850244522094727e-01 2.3159942030906677e-01</leafValues></_>
        <_>
          <internalNodes>
            0 -1 59 -7.3439568281173706e-02</internalNodes>
          <leafValues>
            7.0393419265747070e-01 -1.9562669098377228e-01</leafValues></_>
        <_>
          <internalNodes>
            0 -1 15 -8.5638358723372221e-04</internalNodes>
          <leafValues>
            2.0219111442565918e-01 -7.4052637815475464e-01</leafValues></_>
        <_>
          <internalNodes>
            0 -1 60 -4.7525286674499512e-02</internalNodes>
          <leafValues>
            6.4572161436080933e-01 -2.1043857932090759e-01</leafValues></_>
        <_>
          <internalNodes>
            0 -1 11 4.0219150483608246e-02</internalNodes>
          <leafValues>
            -1.5961037576198578e-01 6.5370750427246094e-01</leafValues></_>
        <_>
          <internalNodes>
            0 -1 62 -8.3918593823909760e-02</internalNodes>
          <leafValues>
            6.0921102762222290e-01 -1.4959990978240967e-01</leafValues></_>
        <_>
          <internalNodes>
            0 -1 78 -3.4875201527029276e-04</internalNodes>
          <leafValues>
            2.2426234185695648e-01 -5.0026834011077881e-01</leafValues></_></weakClassifiers></_></stages>
  <features>
    <_>
      <rects>
        <_>
          0 1 1 21 -1.</_>
        <_>
          0 8 1 7 2.</_></rects>
      <tilted>0</tilted></_>
    <_>
      <rects>
        <_>
          0 1 28 6 -1.</_>
        <_>
          7 1 14 6 2.</_></rects>
      <tilted>0</tilted></_>
    <_>
      <rects>
        <_>
          0 3 10 6 -1.</_>
        <_>
          5 3 5 6 2.</_></rects>
      <tilted>0</tilted></_>
    <_>
      <rects>
        <_>
          0 4 2 24 -1.</_>
        <_>
          0 12 2 8 2.</_></rects>
      <tilted>0</tilted></_>
    <_>
      <rects>
        <_>
          0 4 6 22 -1.</_>
        <_>
          3 4 3 22 2.</_></rects>
      <tilted>0</tilted></_>
    <_>
      <rects>
        <_>
          0 7 4 17 -1.</_>
        <_>
          2 7 2 17 2.</_></rects>
      <tilted>0</tilted></_>
    <_>
      <rects>
        <_>
          0 8 4 14 -1.</_>
        <_>
          2 8 2 14 2.</_></rects>
      <tilted>0</tilted></_>
    <_>
      <rects>
        <_>
          0 9 4 12 -1.</_>
        <_>
          2 9 2 12 2.</_></rects>
      <tilted>0</tilted></_>
    <_>
      <rects>
        <_>
          0 9 22 18 -1.</_>
        <_>
          0 18 22 9 2.</_></rects>
      <tilted>0</tilted></_>
    <_>
      <rects>
        <_>
          0 19 6 7 -1.</_>
        <_>
          3 19 3 7 2.</_></rects>
      <tilted>0</tilted></_>
    <_>
      <rects>
        <_>
          0 21 8 7 -1.</_>
        <_>
          4 21 4 7 2.</_></rects>
      <tilted>0</tilted></_>
    <_>
      <rects>
        <_>
          0 26 28 2 -1.</_>
        <_>
          7 26 14 2 2.</_></rects>
      <tilted>0</tilted></_>
    <_>
      <rects>
        <_>
          1 0 6 18 -1.</_>
        <_>
          1 9 6 9 2.</_></rects>
      <tilted>0</tilted></_>
    <_>
      <rects>
        <_>
          1 5 27 21 -1.</_>
        <_>
          10 5 9 21 2.</_></rects>
      <tilted>0</tilted></_>
    <_>
      <rects>
        <_>
          1 11 27 3 -1.</_>
        <_>
          1 12 27 1 2.</_></rects>
      <tilted>0</tilted></_>
    <_>
      <rects>
        <_>
          1 13 4 3 -1.</_>
        <_>
          1 14 4 1 2.</_></rects>
      <tilted>0</tilted></_>
    <_>
      <rects>
        <_>
          1 13 27 3 -1.</_>
        <_>
          1 14 27 1 2.</_></rects>
      <tilted>0</tilted></_>
    <_>
      <rects>
        <_>
          1 17 5 3 -1.</_>
        <_>
          1 18 5 1 2.</_></rects>
      <tilted>0</tilted></_>
    <_>
      <rects>
        <_>
          1 26 5 2 -1.</_>
        <_>
          1 27 5 1 2.</_></rects>
      <tilted>0</tilted></_>
    <_>
      <rects>
        <_>
          1 26 14 2 -1.</_>
        <_>
          8 26 7 2 2.</_></rects>
      <tilted>0</tilted></_>
    <_>
      <rects>
        <_>
          2 2 3 18 -1.</_>
        <_>
          2 11 3 9 2.</_></rects>
      <tilted>0</tilted></_>
    <_>
      <rects>
        <_>
          2 18 2 3 -1.</_>
        <_>
          2 19 2 1 2.</_></rects>
      <tilted>0</tilted></_>
    <_>
      <rects>
        <_>
          3 0 25 8 -1.</_>
        <_>
          3 4 25 4 2.</_></rects>
      <tilted>0</tilted></_>
    <_>
      <rects>
        <_>
          3 3 24 24 -1.</_>
        <_>
          11 3 8 24 2.</_></rects>
      <tilted>0</tilted></_>
    <_>
      <rects>
        <_>
          3 4 24 23 -1.</_>
        <_>
          11 4 8 23 2.</_></rects>
      <tilted>0</tilted></_>
    <_>
      <rects>
        <_>
          3 16 25 6 -1.</_>
        <_>
          3 18 25 2 2.</_></rects>
      <tilted>0</tilted></_>
    <_>
      <rects>
        <_>
          4 0 24 2 -1.</_>
        <_>
          12 0 8 2 2.</_></rects>
      <tilted>0</tilted></_>
    <_>
      <rects>
        <_>
          4 0 9 6 -1.</_>
        <_>
          4 3 9 3 2.</_></rects>
      <tilted>0</tilted></_>
    <_>
      <rects>
        <_>
          4 0 21 4 -1.</_>
        <_>
          4 2 21 2 2.</_></rects>
      <tilted>0</tilted></_>
    <_>
      <rects>
        <_>
          4 4 20 22 -1.</_>
        <_>
          4 15 20 11 2.</_></rects>
      <tilted>0</tilted></_>
    <_>
      <rects>
        <_>
          4 6 24 20 -1.</_>
        <_>
          12 6 8 20 2.</_></rects>
      <tilted>0</tilted></_>
    <_>
      <rects>
        <_>
          4 14 12 12 -1.</_>
        <_>
          8 14 4 12 2.</_></rects>
      <tilted>0</tilted></_>
    <_>
      <rects>
        <_>
          4 16 22 12 -1.</_>
        <_>
          4 20 22 4 2.</_></rects>
      <tilted>0</tilted></_>
    <_>
      <rects>
        <_>
          4 19 5 4 -1.</_>
        <_>
          4 19 5 2 2.</_></rects>
      <tilted>1</tilted></_>
    <_>
      <rects>
        <_>
          4 20 4 4 -1.</_>
        <_>
          4 20 4 2 2.</_></rects>
      <tilted>1</tilted></_>
    <_>
      <rects>
        <_>
          4 24 3 2 -1.</_>
        <_>
          5 24 1 2 2.</_></rects>
      <tilted>0</tilted></_>
    <_>
      <rects>
        <_>
          4 26 24 2 -1.</_>
        <_>
          10 26 12 2 2.</_></rects>
      <tilted>0</tilted></_>
    <_>
      <rects>
        <_>
          5 3 22 24 -1.</_>
        <_>
          5 11 22 8 2.</_></rects>
      <tilted>0</tilted></_>
    <_>
      <rects>
        <_>
          5 6 15 22 -1.</_>
        <_>
          10 6 5 22 2.</_></rects>
      <tilted>0</tilted></_>
    <_>
      <rects>
        <_>
          5 14 18 12 -1.</_>
        <_>
          11 14 6 12 2.</_></rects>
      <tilted>0</tilted></_>
    <_>
      <rects>
        <_>
          7 1 4 7 -1.</_>
        <_>
          7 1 2 7 2.</_></rects>
      <tilted>1</tilted></_>
    <_>
      <rects>
        <_>
          7 1 12 26 -1.</_>
        <_>
          11 1 4 26 2.</_></rects>
      <tilted>0</tilted></_>
    <_>
      <rects>
        <_>
          7 25 3 2 -1.</_>
        <_>
          8 25 1 2 2.</_></rects>
      <tilted>0</tilted></_>
    <_>
      <rects>
        <_>
          8 0 17 4 -1.</_>
        <_>
          8 2 17 2 2.</_></rects>
      <tilted>0</tilted></_>
    <_>
      <rects>
        <_>
          8 0 19 4 -1.</_>
        <_>
          8 2 19 2 2.</_></rects>
      <tilted>0</tilted></_>
    <_>
      <rects>
        <_>
          9 1 3 27 -1.</_>
        <_>
          10 1 1 27 2.</_></rects>
      <tilted>0</tilted></_>
    <_>
      <rects>
        <_>
          10 2 3 26 -1.</_>
        <_>
          11 2 1 26 2.</_></rects>
      <tilted>0</tilted></_>
    <_>
      <rects>
        <_>
          10 6 18 18 -1.</_>
        <_>
          16 6 6 18 2.</_></rects>
      <tilted>0</tilted></_>
    <_>
      <rects>
        <_>
          11 2 3 25 -1.</_>
        <_>
          12 2 1 25 2.</_></rects>
      <tilted>0</tilted></_>
    <_>
      <rects>
        <_>
          11 5 17 15 -1.</_>
        <_>
          11 10 17 5 2.</_></rects>
      <tilted>0</tilted></_>
    <_>
      <rects>
        <_>
          11 8 6 15 -1.</_>
        <_>
          11 13 6 5 2.</_></rects>
      <tilted>0</tilted></_>
    <_>
      <rects>
        <_>
          12 1 6 27 -1.</_>
        <_>
          14 1 2 27 2.</_></rects>
      <tilted>0</tilted></_>
    <_>
      <rects>
        <_>
          13 1 3 26 -1.</_>
        <_>
          14 1 1 26 2.</_></rects>
      <tilted>0</tilted></_>
    <_>
      <rects>
        <_>
          14 1 3 27 -1.</_>
        <_>
          15 1 1 27 2.</_></rects>
      <tilted>0</tilted></_>
    <_>
      <rects>
        <_>
          15 0 3 28 -1.</_>
        <_>
          16 0 1 28 2.</_></rects>
      <tilted>0</tilted></_>
    <_>
      <rects>
        <_>
          15 2 6 26 -1.</_>
        <_>
          17 2 2 26 2.</_></rects>
      <tilted>0</tilted></_>
    <_>
      <rects>
        <_>
          16 1 3 26 -1.</_>
        <_>
          17 1 1 26 2.</_></rects>
      <tilted>0</tilted></_>
    <_>
      <rects>
        <_>
          17 0 9 26 -1.</_>
        <_>
          20 0 3 26 2.</_></rects>
      <tilted>0</tilted></_>
    <_>
      <rects>
        <_>
          17 1 3 26 -1.</_>
        <_>
          18 1 1 26 2.</_></rects>
      <tilted>0</tilted></_>
    <_>
      <rects>
        <_>
          17 16 7 12 -1.</_>
        <_>
          17 20 7 4 2.</_></rects>
      <tilted>0</tilted></_>
    <_>
      <rects>
        <_>
          18 7 9 6 -1.</_>
        <_>
          21 10 3 6 3.</_></rects>
      <tilted>1</tilted></_>
    <_>
      <rects>
        <_>
          19 7 9 18 -1.</_>
        <_>
          19 13 9 6 2.</_></rects>
      <tilted>0</tilted></_>
    <_>
      <rects>
        <_>
          19 10 9 14 -1.</_>
        <_>
          22 10 3 14 2.</_></rects>
      <tilted>0</tilted></_>
    <_>
      <rects>
        <_>
          20 2 3 3 -1.</_>
        <_>
          21 2 1 3 2.</_></rects>
      <tilted>0</tilted></_>
    <_>
      <rects>
        <_>
          20 25 3 2 -1.</_>
        <_>
          21 25 1 2 2.</_></rects>
      <tilted>0</tilted></_>
    <_>
      <rects>
        <_>
          20 26 3 1 -1.</_>
        <_>
          21 26 1 1 2.</_></rects>
      <tilted>0</tilted></_>
    <_>
      <rects>
        <_>
          21 1 3 27 -1.</_>
        <_>
          22 1 1 27 2.</_></rects>
      <tilted>0</tilted></_>
    <_>
      <rects>
        <_>
          22 0 5 8 -1.</_>
        <_>
          22 4 5 4 2.</_></rects>
      <tilted>0</tilted></_>
    <_>
      <rects>
        <_>
          22 3 3 24 -1.</_>
        <_>
          23 3 1 24 2.</_></rects>
      <tilted>0</tilted></_>
    <_>
      <rects>
        <_>
          23 4 3 23 -1.</_>
        <_>
          24 4 1 23 2.</_></rects>
      <tilted>0</tilted></_>
    <_>
      <rects>
        <_>
          23 6 2 3 -1.</_>
        <_>
          23 7 2 1 2.</_></rects>
      <tilted>0</tilted></_>
    <_>
      <rects>
        <_>
          23 24 3 1 -1.</_>
        <_>
          24 24 1 1 2.</_></rects>
      <tilted>0</tilted></_>
    <_>
      <rects>
        <_>
          24 0 1 4 -1.</_>
        <_>
          24 0 1 2 2.</_></rects>
      <tilted>1</tilted></_>
    <_>
      <rects>
        <_>
          24 7 1 3 -1.</_>
        <_>
          24 8 1 1 2.</_></rects>
      <tilted>0</tilted></_>
    <_>
      <rects>
        <_>
          25 6 2 3 -1.</_>
        <_>
          25 7 2 1 2.</_></rects>
      <tilted>0</tilted></_>
    <_>
      <rects>
        <_>
          26 0 1 4 -1.</_>
        <_>
          26 0 1 2 2.</_></rects>
      <tilted>1</tilted></_>
    <_>
      <rects>
        <_>
          26 0 2 28 -1.</_>
        <_>
          26 7 2 14 2.</_></rects>
      <tilted>0</tilted></_>
    <_>
      <rects>
        <_>
          26 24 1 3 -1.</_>
        <_>
          25 25 1 1 3.</_></rects>
      <tilted>1</tilted></_>
    <_>
      <rects>
        <_>
          27 1 1 4 -1.</_>
        <_>
          27 1 1 2 2.</_></rects>
      <tilted>1</tilted></_>
    <_>
      <rects>
        <_>
          27 23 1 3 -1.</_>
        <_>
          26 24 1 1 3.</_></rects>
      <tilted>1</tilted></_></features></cascade>
</opencv_storage>
