<?xml version="1.0"?>
<opencv_storage>
<cascade>
  <stageType>BOOST</stageType>
  <featureType>HAAR</featureType>
  <height>28</height>
  <width>28</width>
  <stageParams>
    <boostType>GAB</boostType>
    <minHitRate>9.9900001287460327e-01</minHitRate>
    <maxFalseAlarm>5.5000001192092896e-01</maxFalseAlarm>
    <weightTrimRate>9.4999998807907104e-01</weightTrimRate>
    <maxDepth>1</maxDepth>
    <maxWeakCount>100</maxWeakCount></stageParams>
  <featureParams>
    <maxCatCount>0</maxCatCount>
    <featSize>1</featSize>
    <mode>ALL</mode></featureParams>
  <stageNum>4</stageNum>
  <stages>
    <!-- stage 0 -->
    <_>
      <maxWeakCount>2</maxWeakCount>
      <stageThreshold>-2.4463290348649025e-02</stageThreshold>
      <weakClassifiers>
        <_>
          <internalNodes>
            0 -1 4 -1.2541103363037109e-01</internalNodes>
          <leafValues>
            9.6255505084991455e-01 -9.8995536565780640e-01</leafValues></_>
        <_>
          <internalNodes>
            0 -1 12 -1.7109684646129608e-02</internalNodes>
          <leafValues>
            9.6949970722198486e-01 -9.8701834678649902e-01</leafValues></_></weakClassifiers></_>
    <!-- stage 1 -->
    <_>
      <maxWeakCount>3</maxWeakCount>
      <stageThreshold>-1.0736554861068726e+00</stageThreshold>
      <weakClassifiers>
        <_>
          <internalNodes>
            0 -1 8 -2.3943174630403519e-02</internalNodes>
          <leafValues>
            7.5574111938476562e-01 -9.3226176500320435e-01</leafValues></_>
        <_>
          <internalNodes>
            0 -1 5 -1.9698232412338257e-01</internalNodes>
          <leafValues>
            7.3679143190383911e-01 -8.7871485948562622e-01</leafValues></_>
        <_>
          <internalNodes>
            0 -1 9 -2.4370606988668442e-02</internalNodes>
          <leafValues>
            7.3732113838195801e-01 -8.6799329519271851e-01</leafValues></_></weakClassifiers></_>
    <!-- stage 2 -->
    <_>
      <maxWeakCount>4</maxWeakCount>
      <stageThreshold>-1.9589961767196655e+00</stageThreshold>
      <weakClassifiers>
        <_>
          <internalNodes>
            0 -1 13 -2.5488339364528656e-02</internalNodes>
          <leafValues>
            5.6135267019271851e-01 -8.8948947191238403e-01</leafValues></_>
        <_>
          <internalNodes>
            0 -1 3 1.1561734601855278e-02</internalNodes>
          <leafValues>
            -7.8963756561279297e-01 6.5323615074157715e-01</leafValues></_>
        <_>
          <internalNodes>
            0 -1 0 1.0279141366481781e-02</internalNodes>
          <leafValues>
            -7.4840623140335083e-01 5.9308475255966187e-01</leafValues></_>
        <_>
          <internalNodes>
            0 -1 14 -3.5184872103855014e-04</internalNodes>
          <leafValues>
            5.0219470262527466e-01 -8.7295389175415039e-01</leafValues></_></weakClassifiers></_>
    <!-- stage 3 -->
    <_>
      <maxWeakCount>6</maxWeakCount>
      <stageThreshold>-2.0268933773040771e+00</stageThreshold>
      <weakClassifiers>
        <_>
          <internalNodes>
            0 -1 1 2.0787268877029419e-02</internalNodes>
          <leafValues>
            -7.5709778070449829e-01 6.7669171094894409e-01</leafValues></_>
        <_>
          <internalNodes>
            0 -1 11 -2.5143515318632126e-02</internalNodes>
          <leafValues>
            5.0232851505279541e-01 -8.1788694858551025e-01</leafValues></_>
        <_>
          <internalNodes>
            0 -1 6 -2.1174541115760803e-01</internalNodes>
          <leafValues>
            5.5092155933380127e-01 -7.3283076286315918e-01</leafValues></_>
        <_>
          <internalNodes>
            0 -1 10 -2.5598252192139626e-02</internalNodes>
          <leafValues>
            5.1512026786804199e-01 -8.0318403244018555e-01</leafValues></_>
        <_>
          <internalNodes>
            0 -1 7 1.2781517580151558e-02</internalNodes>
          <leafValues>
            -5.7417958974838257e-01 5.4673826694488525e-01</leafValues></_>
        <_>
          <internalNodes>
            0 -1 2 -2.7569809928536415e-02</internalNodes>
          <leafValues>
            3.7453347444534302e-01 -7.6725488901138306e-01</leafValues></_></weakClassifiers></_></stages>
  <features>
    <_>
      <rects>
        <_>
          0 3 10 6 -1.</_>
        <_>
          5 3 5 6 2.</_></rects>
      <tilted>0</tilted></_>
    <_>
      <rects>
        <_>
          0 7 4 16 -1.</_>
        <_>
          2 7 2 16 2.</_></rects>
      <tilted>0</tilted></_>
    <_>
      <rects>
        <_>
          0 13 28 3 -1.</_>
        <_>
          0 14 28 1 2.</_></rects>
      <tilted>0</tilted></_>
    <_>
      <rects>
        <_>
          0 19 6 7 -1.</_>
        <_>
          3 19 3 7 2.</_></rects>
      <tilted>0</tilted></_>
    <_>
      <rects>
        <_>
          3 3 24 24 -1.</_>
        <_>
          11 3 8 24 2.</_></rects>
      <tilted>0</tilted></_>
    <_>
      <rects>
        <_>
          3 4 24 23 -1.</_>
        <_>
          11 4 8 23 2.</_></rects>
      <tilted>0</tilted></_>
    <_>
      <rects>
        <_>
          4 5 24 22 -1.</_>
        <_>
          12 5 8 22 2.</_></rects>
      <tilted>0</tilted></_>
    <_>
      <rects>
        <_>
          6 0 18 4 -1.</_>
        <_>
          6 2 18 2 2.</_></rects>
      <tilted>0</tilted></_>
    <_>
      <rects>
        <_>
          9 1 3 27 -1.</_>
        <_>
          10 1 1 27 2.</_></rects>
      <tilted>0</tilted></_>
    <_>
      <rects>
        <_>
          13 1 3 26 -1.</_>
        <_>
          14 1 1 26 2.</_></rects>
      <tilted>0</tilted></_>
    <_>
      <rects>
        <_>
          14 2 3 26 -1.</_>
        <_>
          15 2 1 26 2.</_></rects>
      <tilted>0</tilted></_>
    <_>
      <rects>
        <_>
          15 2 3 26 -1.</_>
        <_>
          16 2 1 26 2.</_></rects>
      <tilted>0</tilted></_>
    <_>
      <rects>
        <_>
          16 1 3 26 -1.</_>
        <_>
          17 1 1 26 2.</_></rects>
      <tilted>0</tilted></_>
    <_>
      <rects>
        <_>
          17 1 3 26 -1.</_>
        <_>
          18 1 1 26 2.</_></rects>
      <tilted>0</tilted></_>
    <_>
      <rects>
        <_>
          25 6 2 3 -1.</_>
        <_>
          25 7 2 1 2.</_></rects>
      <tilted>0</tilted></_></features></cascade>
</opencv_storage>
