<?xml version="1.0"?>
<opencv_storage>
<cascade>
  <stageType>BOOST</stageType>
  <featureType>HAAR</featureType>
  <height>28</height>
  <width>28</width>
  <stageParams>
    <boostType>GAB</boostType>
    <minHitRate>9.9900001287460327e-01</minHitRate>
    <maxFalseAlarm>3.4999999403953552e-01</maxFalseAlarm>
    <weightTrimRate>9.4999998807907104e-01</weightTrimRate>
    <maxDepth>1</maxDepth>
    <maxWeakCount>100</maxWeakCount></stageParams>
  <featureParams>
    <maxCatCount>0</maxCatCount>
    <featSize>1</featSize>
    <mode>ALL</mode></featureParams>
  <stageNum>5</stageNum>
  <stages>
    <!-- stage 0 -->
    <_>
      <maxWeakCount>2</maxWeakCount>
      <stageThreshold>-2.4463290348649025e-02</stageThreshold>
      <weakClassifiers>
        <_>
          <internalNodes>
            0 -1 9 -1.2541103363037109e-01</internalNodes>
          <leafValues>
            9.6255505084991455e-01 -9.8995536565780640e-01</leafValues></_>
        <_>
          <internalNodes>
            0 -1 21 -1.7109684646129608e-02</internalNodes>
          <leafValues>
            9.6949970722198486e-01 -9.8701834678649902e-01</leafValues></_></weakClassifiers></_>
    <!-- stage 1 -->
    <_>
      <maxWeakCount>3</maxWeakCount>
      <stageThreshold>-1.0736554861068726e+00</stageThreshold>
      <weakClassifiers>
        <_>
          <internalNodes>
            0 -1 16 -2.3943174630403519e-02</internalNodes>
          <leafValues>
            7.5574111938476562e-01 -9.3226176500320435e-01</leafValues></_>
        <_>
          <internalNodes>
            0 -1 10 -1.9698232412338257e-01</internalNodes>
          <leafValues>
            7.3679143190383911e-01 -8.7871485948562622e-01</leafValues></_>
        <_>
          <internalNodes>
            0 -1 18 -2.4370606988668442e-02</internalNodes>
          <leafValues>
            7.3732113838195801e-01 -8.6799329519271851e-01</leafValues></_></weakClassifiers></_>
    <!-- stage 2 -->
    <_>
      <maxWeakCount>6</maxWeakCount>
      <stageThreshold>-2.1881282329559326e+00</stageThreshold>
      <weakClassifiers>
        <_>
          <internalNodes>
            0 -1 22 -2.5488339364528656e-02</internalNodes>
          <leafValues>
            5.6135267019271851e-01 -8.8948947191238403e-01</leafValues></_>
        <_>
          <internalNodes>
            0 -1 3 1.1561734601855278e-02</internalNodes>
          <leafValues>
            -7.8963756561279297e-01 6.5323615074157715e-01</leafValues></_>
        <_>
          <internalNodes>
            0 -1 0 1.0279141366481781e-02</internalNodes>
          <leafValues>
            -7.4840623140335083e-01 5.9308475255966187e-01</leafValues></_>
        <_>
          <internalNodes>
            0 -1 27 -3.5184872103855014e-04</internalNodes>
          <leafValues>
            5.0219470262527466e-01 -8.7295389175415039e-01</leafValues></_>
        <_>
          <internalNodes>
            0 -1 8 -2.4726007133722305e-02</internalNodes>
          <leafValues>
            4.5932877063751221e-01 -8.2654243707656860e-01</leafValues></_>
        <_>
          <internalNodes>
            0 -1 23 -4.6167324762791395e-04</internalNodes>
          <leafValues>
            5.6375277042388916e-01 -6.4981240034103394e-01</leafValues></_></weakClassifiers></_>
    <!-- stage 3 -->
    <_>
      <maxWeakCount>8</maxWeakCount>
      <stageThreshold>-2.0938980579376221e+00</stageThreshold>
      <weakClassifiers>
        <_>
          <internalNodes>
            0 -1 2 2.1885264664888382e-02</internalNodes>
          <leafValues>
            -7.5358468294143677e-01 6.3525092601776123e-01</leafValues></_>
        <_>
          <internalNodes>
            0 -1 14 -1.8492829799652100e-01</internalNodes>
          <leafValues>
            4.0096241235733032e-01 -8.3820229768753052e-01</leafValues></_>
        <_>
          <internalNodes>
            0 -1 5 2.1874422207474709e-02</internalNodes>
          <leafValues>
            -6.7637711763381958e-01 4.4347676634788513e-01</leafValues></_>
        <_>
          <internalNodes>
            0 -1 17 -2.2576231509447098e-02</internalNodes>
          <leafValues>
            3.2729467749595642e-01 -8.3508712053298950e-01</leafValues></_>
        <_>
          <internalNodes>
            0 -1 24 -2.3418884724378586e-02</internalNodes>
          <leafValues>
            3.8996556401252747e-01 -7.1446007490158081e-01</leafValues></_>
        <_>
          <internalNodes>
            0 -1 4 1.6476422548294067e-02</internalNodes>
          <leafValues>
            -5.2236044406890869e-01 4.9491044878959656e-01</leafValues></_>
        <_>
          <internalNodes>
            0 -1 25 -5.6030950509011745e-04</internalNodes>
          <leafValues>
            4.4733497500419617e-01 -6.3247239589691162e-01</leafValues></_>
        <_>
          <internalNodes>
            0 -1 12 -1.4537909626960754e-01</internalNodes>
          <leafValues>
            6.3645696640014648e-01 -4.4970101118087769e-01</leafValues></_></weakClassifiers></_>
    <!-- stage 4 -->
    <_>
      <maxWeakCount>9</maxWeakCount>
      <stageThreshold>-1.7986761331558228e+00</stageThreshold>
      <weakClassifiers>
        <_>
          <internalNodes>
            0 -1 15 2.5587853044271469e-02</internalNodes>
          <leafValues>
            -7.1695005893707275e-01 4.6408209204673767e-01</leafValues></_>
        <_>
          <internalNodes>
            0 -1 1 3.3577457070350647e-02</internalNodes>
          <leafValues>
            -6.4466327428817749e-01 5.0484764575958252e-01</leafValues></_>
        <_>
          <internalNodes>
            0 -1 6 -2.4067708849906921e-01</internalNodes>
          <leafValues>
            4.7059234976768494e-01 -5.4868841171264648e-01</leafValues></_>
        <_>
          <internalNodes>
            0 -1 19 -2.8014447540044785e-02</internalNodes>
          <leafValues>
            4.3809431791305542e-01 -6.8357306718826294e-01</leafValues></_>
        <_>
          <internalNodes>
            0 -1 20 -3.1095430254936218e-02</internalNodes>
          <leafValues>
            3.9862027764320374e-01 -5.2512377500534058e-01</leafValues></_>
        <_>
          <internalNodes>
            0 -1 13 8.4655787795782089e-03</internalNodes>
          <leafValues>
            -5.2932876348495483e-01 3.5023635625839233e-01</leafValues></_>
        <_>
          <internalNodes>
            0 -1 26 -3.0527939088642597e-04</internalNodes>
          <leafValues>
            3.2586479187011719e-01 -6.0200864076614380e-01</leafValues></_>
        <_>
          <internalNodes>
            0 -1 11 5.4591735824942589e-03</internalNodes>
          <leafValues>
            -5.7579135894775391e-01 3.3599230647087097e-01</leafValues></_>
        <_>
          <internalNodes>
            0 -1 7 -2.1436255425214767e-02</internalNodes>
          <leafValues>
            1.9797347486019135e-01 -8.5761731863021851e-01</leafValues></_></weakClassifiers></_></stages>
  <features>
    <_>
      <rects>
        <_>
          0 3 10 6 -1.</_>
        <_>
          5 3 5 6 2.</_></rects>
      <tilted>0</tilted></_>
    <_>
      <rects>
        <_>
          0 4 6 22 -1.</_>
        <_>
          3 4 3 22 2.</_></rects>
      <tilted>0</tilted></_>
    <_>
      <rects>
        <_>
          0 7 4 17 -1.</_>
        <_>
          2 7 2 17 2.</_></rects>
      <tilted>0</tilted></_>
    <_>
      <rects>
        <_>
          0 19 6 7 -1.</_>
        <_>
          3 19 3 7 2.</_></rects>
      <tilted>0</tilted></_>
    <_>
      <rects>
        <_>
          0 21 8 7 -1.</_>
        <_>
          4 21 4 7 2.</_></rects>
      <tilted>0</tilted></_>
    <_>
      <rects>
        <_>
          1 0 6 18 -1.</_>
        <_>
          1 9 6 9 2.</_></rects>
      <tilted>0</tilted></_>
    <_>
      <rects>
        <_>
          1 5 27 21 -1.</_>
        <_>
          10 5 9 21 2.</_></rects>
      <tilted>0</tilted></_>
    <_>
      <rects>
        <_>
          1 11 27 3 -1.</_>
        <_>
          1 12 27 1 2.</_></rects>
      <tilted>0</tilted></_>
    <_>
      <rects>
        <_>
          1 13 27 3 -1.</_>
        <_>
          1 14 27 1 2.</_></rects>
      <tilted>0</tilted></_>
    <_>
      <rects>
        <_>
          3 3 24 24 -1.</_>
        <_>
          11 3 8 24 2.</_></rects>
      <tilted>0</tilted></_>
    <_>
      <rects>
        <_>
          3 4 24 23 -1.</_>
        <_>
          11 4 8 23 2.</_></rects>
      <tilted>0</tilted></_>
    <_>
      <rects>
        <_>
          4 0 9 6 -1.</_>
        <_>
          4 3 9 3 2.</_></rects>
      <tilted>0</tilted></_>
    <_>
      <rects>
        <_>
          4 16 22 12 -1.</_>
        <_>
          4 20 22 4 2.</_></rects>
      <tilted>0</tilted></_>
    <_>
      <rects>
        <_>
          4 20 4 4 -1.</_>
        <_>
          4 20 4 2 2.</_></rects>
      <tilted>1</tilted></_>
    <_>
      <rects>
        <_>
          5 3 22 24 -1.</_>
        <_>
          5 11 22 8 2.</_></rects>
      <tilted>0</tilted></_>
    <_>
      <rects>
        <_>
          8 0 17 4 -1.</_>
        <_>
          8 2 17 2 2.</_></rects>
      <tilted>0</tilted></_>
    <_>
      <rects>
        <_>
          9 1 3 27 -1.</_>
        <_>
          10 1 1 27 2.</_></rects>
      <tilted>0</tilted></_>
    <_>
      <rects>
        <_>
          10 2 3 26 -1.</_>
        <_>
          11 2 1 26 2.</_></rects>
      <tilted>0</tilted></_>
    <_>
      <rects>
        <_>
          13 1 3 26 -1.</_>
        <_>
          14 1 1 26 2.</_></rects>
      <tilted>0</tilted></_>
    <_>
      <rects>
        <_>
          14 1 3 27 -1.</_>
        <_>
          15 1 1 27 2.</_></rects>
      <tilted>0</tilted></_>
    <_>
      <rects>
        <_>
          15 0 3 28 -1.</_>
        <_>
          16 0 1 28 2.</_></rects>
      <tilted>0</tilted></_>
    <_>
      <rects>
        <_>
          16 1 3 26 -1.</_>
        <_>
          17 1 1 26 2.</_></rects>
      <tilted>0</tilted></_>
    <_>
      <rects>
        <_>
          17 1 3 26 -1.</_>
        <_>
          18 1 1 26 2.</_></rects>
      <tilted>0</tilted></_>
    <_>
      <rects>
        <_>
          20 26 3 1 -1.</_>
        <_>
          21 26 1 1 2.</_></rects>
      <tilted>0</tilted></_>
    <_>
      <rects>
        <_>
          23 4 3 23 -1.</_>
        <_>
          24 4 1 23 2.</_></rects>
      <tilted>0</tilted></_>
    <_>
      <rects>
        <_>
          24 0 1 4 -1.</_>
        <_>
          24 0 1 2 2.</_></rects>
      <tilted>1</tilted></_>
    <_>
      <rects>
        <_>
          24 7 1 3 -1.</_>
        <_>
          24 8 1 1 2.</_></rects>
      <tilted>0</tilted></_>
    <_>
      <rects>
        <_>
          25 6 2 3 -1.</_>
        <_>
          25 7 2 1 2.</_></rects>
      <tilted>0</tilted></_></features></cascade>
</opencv_storage>
